<?xml version="1.0"?>
<opencv_storage>
<cascade>
  <stageType>BOOST</stageType>
  <featureType>HAAR</featureType>
  <height>48</height>
  <width>48</width>
  <stageParams>
    <boostType>GAB</boostType>
    <minHitRate>9.9500000476837158e-01</minHitRate>
    <maxFalseAlarm>5.0000000000000000e-01</maxFalseAlarm>
    <weightTrimRate>9.4999999999999996e-01</weightTrimRate>
    <maxDepth>1</maxDepth>
    <maxWeakCount>100</maxWeakCount></stageParams>
  <featureParams>
    <maxCatCount>0</maxCatCount>
    <featSize>1</featSize>
    <mode>BASIC</mode></featureParams>
  <stageNum>20</stageNum>
  <stages>
    <!-- stage 0 -->
    <_>
      <maxWeakCount>3</maxWeakCount>
      <stageThreshold>2.2995853424072266e-01</stageThreshold>
      <weakClassifiers>
        <_>
          <internalNodes>
            0 -1 58 4.4513997272588313e-04</internalNodes>
          <leafValues>
            5.2061069011688232e-01 -9.7241377830505371e-01</leafValues></_>
        <_>
          <internalNodes>
            0 -1 48 1.3075421564280987e-02</internalNodes>
          <leafValues>
            -5.0170904397964478e-01 7.0179218053817749e-01</leafValues></_>
        <_>
          <internalNodes>
            0 -1 89 -1.9741200958378613e-04</internalNodes>
          <leafValues>
            -9.9244433641433716e-01 3.3639109134674072e-01</leafValues></_></weakClassifiers></_>
    <!-- stage 1 -->
    <_>
      <maxWeakCount>3</maxWeakCount>
      <stageThreshold>-3.9367237687110901e-01</stageThreshold>
      <weakClassifiers>
        <_>
          <internalNodes>
            0 -1 2 -1.9855293631553650e-01</internalNodes>
          <leafValues>
            9.3175071477890015e-01 -2.4622030556201935e-01</leafValues></_>
        <_>
          <internalNodes>
            0 -1 99 2.8464692150009796e-06</internalNodes>
          <leafValues>
            -6.1705189943313599e-01 6.2868183851242065e-01</leafValues></_>
        <_>
          <internalNodes>
            0 -1 37 4.0547943171986844e-06</internalNodes>
          <leafValues>
            -6.3056486845016479e-01 4.6959984302520752e-01</leafValues></_></weakClassifiers></_>
    <!-- stage 2 -->
    <_>
      <maxWeakCount>4</maxWeakCount>
      <stageThreshold>-6.4254814386367798e-01</stageThreshold>
      <weakClassifiers>
        <_>
          <internalNodes>
            0 -1 72 -2.2228881425689906e-04</internalNodes>
          <leafValues>
            -9.6091204881668091e-01 5.3750967979431152e-01</leafValues></_>
        <_>
          <internalNodes>
            0 -1 5 -5.6492142379283905e-02</internalNodes>
          <leafValues>
            8.6602187156677246e-01 -4.5948174595832825e-01</leafValues></_>
        <_>
          <internalNodes>
            0 -1 106 3.7398113636299968e-04</internalNodes>
          <leafValues>
            3.5835927724838257e-01 -9.6209043264389038e-01</leafValues></_>
        <_>
          <internalNodes>
            0 -1 62 5.6875689188018441e-04</internalNodes>
          <leafValues>
            2.4151436984539032e-01 -9.6588194370269775e-01</leafValues></_></weakClassifiers></_>
    <!-- stage 3 -->
    <_>
      <maxWeakCount>4</maxWeakCount>
      <stageThreshold>-6.5897053480148315e-01</stageThreshold>
      <weakClassifiers>
        <_>
          <internalNodes>
            0 -1 72 2.8792177909053862e-04</internalNodes>
          <leafValues>
            6.0717195272445679e-01 -9.2493295669555664e-01</leafValues></_>
        <_>
          <internalNodes>
            0 -1 0 -4.0793108940124512e-01</internalNodes>
          <leafValues>
            8.8906347751617432e-01 -3.7466749548912048e-01</leafValues></_>
        <_>
          <internalNodes>
            0 -1 101 1.0356764687458053e-04</internalNodes>
          <leafValues>
            3.6310252547264099e-01 -8.8970869779586792e-01</leafValues></_>
        <_>
          <internalNodes>
            0 -1 101 -1.1813950550276786e-04</internalNodes>
          <leafValues>
            -8.1655442714691162e-01 2.7752742171287537e-01</leafValues></_></weakClassifiers></_>
    <!-- stage 4 -->
    <_>
      <maxWeakCount>6</maxWeakCount>
      <stageThreshold>-9.9643379449844360e-01</stageThreshold>
      <weakClassifiers>
        <_>
          <internalNodes>
            0 -1 40 2.0484689623117447e-02</internalNodes>
          <leafValues>
            4.9096384644508362e-01 -9.2647057771682739e-01</leafValues></_>
        <_>
          <internalNodes>
            0 -1 26 -1.7100403085350990e-02</internalNodes>
          <leafValues>
            6.4064025878906250e-01 -4.4087046384811401e-01</leafValues></_>
        <_>
          <internalNodes>
            0 -1 47 1.1359225027263165e-04</internalNodes>
          <leafValues>
            2.6404079794883728e-01 -8.9675432443618774e-01</leafValues></_>
        <_>
          <internalNodes>
            0 -1 96 2.4798503091005841e-06</internalNodes>
          <leafValues>
            -5.6305485963821411e-01 3.6014512181282043e-01</leafValues></_>
        <_>
          <internalNodes>
            0 -1 97 2.0428136922419071e-03</internalNodes>
          <leafValues>
            -4.7194996476173401e-01 4.3809738755226135e-01</leafValues></_>
        <_>
          <internalNodes>
            0 -1 38 3.2391876447945833e-04</internalNodes>
          <leafValues>
            2.1867127716541290e-01 -9.2207670211791992e-01</leafValues></_></weakClassifiers></_>
    <!-- stage 5 -->
    <_>
      <maxWeakCount>4</maxWeakCount>
      <stageThreshold>-3.4656384587287903e-01</stageThreshold>
      <weakClassifiers>
        <_>
          <internalNodes>
            0 -1 102 -8.1841909559443593e-04</internalNodes>
          <leafValues>
            6.8976897001266479e-01 -3.2850942015647888e-01</leafValues></_>
        <_>
          <internalNodes>
            0 -1 112 -2.5913424906320870e-04</internalNodes>
          <leafValues>
            5.2284449338912964e-01 -5.1103466749191284e-01</leafValues></_>
        <_>
          <internalNodes>
            0 -1 55 3.8166763260960579e-04</internalNodes>
          <leafValues>
            2.5038376450538635e-01 -9.3648660182952881e-01</leafValues></_>
        <_>
          <internalNodes>
            0 -1 90 6.3622446759836748e-06</internalNodes>
          <leafValues>
            -5.9370964765548706e-01 3.9558765292167664e-01</leafValues></_></weakClassifiers></_>
    <!-- stage 6 -->
    <_>
      <maxWeakCount>7</maxWeakCount>
      <stageThreshold>-1.0961134433746338e+00</stageThreshold>
      <weakClassifiers>
        <_>
          <internalNodes>
            0 -1 119 -1.5181439230218530e-03</internalNodes>
          <leafValues>
            6.9007802009582520e-01 -3.1152203679084778e-01</leafValues></_>
        <_>
          <internalNodes>
            0 -1 8 7.2971382178366184e-03</internalNodes>
          <leafValues>
            -3.2270294427871704e-01 6.8133592605590820e-01</leafValues></_>
        <_>
          <internalNodes>
            0 -1 17 5.3175506764091551e-05</internalNodes>
          <leafValues>
            -3.0518615245819092e-01 7.1536487340927124e-01</leafValues></_>
        <_>
          <internalNodes>
            0 -1 80 -6.1413738876581192e-05</internalNodes>
          <leafValues>
            -8.7769955396652222e-01 2.8276452422142029e-01</leafValues></_>
        <_>
          <internalNodes>
            0 -1 3 -6.6259996965527534e-03</internalNodes>
          <leafValues>
            7.0074242353439331e-01 -3.6086097359657288e-01</leafValues></_>
        <_>
          <internalNodes>
            0 -1 87 1.7246205970877782e-05</internalNodes>
          <leafValues>
            3.1740647554397583e-01 -7.5858634710311890e-01</leafValues></_>
        <_>
          <internalNodes>
            0 -1 4 4.4377325102686882e-03</internalNodes>
          <leafValues>
            -3.8417860865592957e-01 6.7998045682907104e-01</leafValues></_></weakClassifiers></_>
    <!-- stage 7 -->
    <_>
      <maxWeakCount>6</maxWeakCount>
      <stageThreshold>-7.9417628049850464e-01</stageThreshold>
      <weakClassifiers>
        <_>
          <internalNodes>
            0 -1 28 -5.0911530852317810e-03</internalNodes>
          <leafValues>
            7.2805935144424438e-01 -2.3893804848194122e-01</leafValues></_>
        <_>
          <internalNodes>
            0 -1 120 -1.4272651169449091e-03</internalNodes>
          <leafValues>
            5.7251518964767456e-01 -3.5946393013000488e-01</leafValues></_>
        <_>
          <internalNodes>
            0 -1 13 4.2811909224838018e-04</internalNodes>
          <leafValues>
            -3.5116049647331238e-01 5.6143790483474731e-01</leafValues></_>
        <_>
          <internalNodes>
            0 -1 69 -6.4653828740119934e-03</internalNodes>
          <leafValues>
            6.8139779567718506e-01 -3.3676370978355408e-01</leafValues></_>
        <_>
          <internalNodes>
            0 -1 50 1.1066543083870783e-04</internalNodes>
          <leafValues>
            -7.5224977731704712e-01 2.9773303866386414e-01</leafValues></_>
        <_>
          <internalNodes>
            0 -1 31 -2.8617572388611734e-04</internalNodes>
          <leafValues>
            -9.6898257732391357e-01 2.2623820602893829e-01</leafValues></_></weakClassifiers></_>
    <!-- stage 8 -->
    <_>
      <maxWeakCount>5</maxWeakCount>
      <stageThreshold>-2.5274780392646790e-01</stageThreshold>
      <weakClassifiers>
        <_>
          <internalNodes>
            0 -1 91 -1.5055871335789561e-04</internalNodes>
          <leafValues>
            -8.7341773509979248e-01 4.4534116983413696e-01</leafValues></_>
        <_>
          <internalNodes>
            0 -1 1 -5.0927102565765381e-01</internalNodes>
          <leafValues>
            8.3509546518325806e-01 -3.2408398389816284e-01</leafValues></_>
        <_>
          <internalNodes>
            0 -1 114 2.1183127537369728e-03</internalNodes>
          <leafValues>
            2.8391283750534058e-01 -8.3577162027359009e-01</leafValues></_>
        <_>
          <internalNodes>
            0 -1 111 -2.4432284408248961e-04</internalNodes>
          <leafValues>
            4.5221415162086487e-01 -4.4232338666915894e-01</leafValues></_>
        <_>
          <internalNodes>
            0 -1 104 2.5871605612337589e-04</internalNodes>
          <leafValues>
            2.0862688124179840e-01 -9.2954176664352417e-01</leafValues></_></weakClassifiers></_>
    <!-- stage 9 -->
    <_>
      <maxWeakCount>8</maxWeakCount>
      <stageThreshold>-7.9877644777297974e-01</stageThreshold>
      <weakClassifiers>
        <_>
          <internalNodes>
            0 -1 113 4.1183628491126001e-04</internalNodes>
          <leafValues>
            -4.0000000596046448e-01 5.6296294927597046e-01</leafValues></_>
        <_>
          <internalNodes>
            0 -1 77 -4.3335126247256994e-04</internalNodes>
          <leafValues>
            -8.5558563470840454e-01 2.6848569512367249e-01</leafValues></_>
        <_>
          <internalNodes>
            0 -1 41 -3.1811920925974846e-03</internalNodes>
          <leafValues>
            -5.8640509843826294e-01 2.8927600383758545e-01</leafValues></_>
        <_>
          <internalNodes>
            0 -1 33 -7.2004686808213592e-04</internalNodes>
          <leafValues>
            3.2413592934608459e-01 -6.0571348667144775e-01</leafValues></_>
        <_>
          <internalNodes>
            0 -1 6 1.2632476165890694e-02</internalNodes>
          <leafValues>
            -3.4229952096939087e-01 6.2469410896301270e-01</leafValues></_>
        <_>
          <internalNodes>
            0 -1 21 -3.2611686037853360e-04</internalNodes>
          <leafValues>
            4.5872691273689270e-01 -4.0703642368316650e-01</leafValues></_>
        <_>
          <internalNodes>
            0 -1 42 -8.5131300147622824e-04</internalNodes>
          <leafValues>
            -9.4432997703552246e-01 2.4365085363388062e-01</leafValues></_>
        <_>
          <internalNodes>
            0 -1 43 -2.5337449187645689e-06</internalNodes>
          <leafValues>
            3.4908238053321838e-01 -5.5760008096694946e-01</leafValues></_></weakClassifiers></_>
    <!-- stage 10 -->
    <_>
      <maxWeakCount>6</maxWeakCount>
      <stageThreshold>-6.5786325931549072e-01</stageThreshold>
      <weakClassifiers>
        <_>
          <internalNodes>
            0 -1 56 -5.9324866160750389e-03</internalNodes>
          <leafValues>
            6.1377871036529541e-01 -2.9283487796783447e-01</leafValues></_>
        <_>
          <internalNodes>
            0 -1 66 1.4185108011588454e-04</internalNodes>
          <leafValues>
            2.4646684527397156e-01 -8.6159223318099976e-01</leafValues></_>
        <_>
          <internalNodes>
            0 -1 93 -2.4209785624407232e-04</internalNodes>
          <leafValues>
            3.7370017170906067e-01 -4.5818349719047546e-01</leafValues></_>
        <_>
          <internalNodes>
            0 -1 16 2.4580431636422873e-04</internalNodes>
          <leafValues>
            -3.1795608997344971e-01 6.0035043954849243e-01</leafValues></_>
        <_>
          <internalNodes>
            0 -1 61 4.4499087380245328e-05</internalNodes>
          <leafValues>
            2.0451615750789642e-01 -8.4104186296463013e-01</leafValues></_>
        <_>
          <internalNodes>
            0 -1 51 1.2684530520346016e-04</internalNodes>
          <leafValues>
            1.4988081157207489e-01 -9.0020978450775146e-01</leafValues></_></weakClassifiers></_>
    <!-- stage 11 -->
    <_>
      <maxWeakCount>6</maxWeakCount>
      <stageThreshold>-5.8136028051376343e-01</stageThreshold>
      <weakClassifiers>
        <_>
          <internalNodes>
            0 -1 82 -1.0075173340737820e-03</internalNodes>
          <leafValues>
            7.2752809524536133e-01 -1.3288287818431854e-01</leafValues></_>
        <_>
          <internalNodes>
            0 -1 71 1.7361264326609671e-04</internalNodes>
          <leafValues>
            2.7014356851577759e-01 -7.8019034862518311e-01</leafValues></_>
        <_>
          <internalNodes>
            0 -1 20 -1.8022031872533262e-04</internalNodes>
          <leafValues>
            4.5728155970573425e-01 -4.1077688336372375e-01</leafValues></_>
        <_>
          <internalNodes>
            0 -1 81 -5.7447212748229504e-04</internalNodes>
          <leafValues>
            7.1074664592742920e-01 -2.3113887012004852e-01</leafValues></_>
        <_>
          <internalNodes>
            0 -1 25 3.7696764338761568e-03</internalNodes>
          <leafValues>
            -2.8449356555938721e-01 6.0974752902984619e-01</leafValues></_>
        <_>
          <internalNodes>
            0 -1 98 2.5335925784020219e-06</internalNodes>
          <leafValues>
            -5.7626837491989136e-01 3.1623676419258118e-01</leafValues></_></weakClassifiers></_>
    <!-- stage 12 -->
    <_>
      <maxWeakCount>7</maxWeakCount>
      <stageThreshold>-4.6793898940086365e-01</stageThreshold>
      <weakClassifiers>
        <_>
          <internalNodes>
            0 -1 19 -5.4149306379258633e-04</internalNodes>
          <leafValues>
            5.2173912525177002e-01 -4.4444444775581360e-01</leafValues></_>
        <_>
          <internalNodes>
            0 -1 64 7.1401009336113930e-04</internalNodes>
          <leafValues>
            1.9263783097267151e-01 -8.7443065643310547e-01</leafValues></_>
        <_>
          <internalNodes>
            0 -1 83 6.8432115949690342e-03</internalNodes>
          <leafValues>
            -3.0884036421775818e-01 5.3559750318527222e-01</leafValues></_>
        <_>
          <internalNodes>
            0 -1 23 9.2638249043375254e-05</internalNodes>
          <leafValues>
            -3.3334985375404358e-01 4.9984708428382874e-01</leafValues></_>
        <_>
          <internalNodes>
            0 -1 110 8.6551071944995783e-06</internalNodes>
          <leafValues>
            -5.4854577779769897e-01 2.8654110431671143e-01</leafValues></_>
        <_>
          <internalNodes>
            0 -1 125 -4.1197059908881783e-04</internalNodes>
          <leafValues>
            7.4184364080429077e-01 -2.1729932725429535e-01</leafValues></_>
        <_>
          <internalNodes>
            0 -1 29 -3.8338571903295815e-04</internalNodes>
          <leafValues>
            4.5959094166755676e-01 -3.6959764361381531e-01</leafValues></_></weakClassifiers></_>
    <!-- stage 13 -->
    <_>
      <maxWeakCount>7</maxWeakCount>
      <stageThreshold>-5.3157967329025269e-01</stageThreshold>
      <weakClassifiers>
        <_>
          <internalNodes>
            0 -1 85 -2.4333863984793425e-04</internalNodes>
          <leafValues>
            -8.7096774578094482e-01 3.9745402336120605e-01</leafValues></_>
        <_>
          <internalNodes>
            0 -1 92 6.8108126288279891e-04</internalNodes>
          <leafValues>
            -2.9682654142379761e-01 5.3846722841262817e-01</leafValues></_>
        <_>
          <internalNodes>
            0 -1 79 -5.7219789596274495e-05</internalNodes>
          <leafValues>
            -9.0608036518096924e-01 1.9450393319129944e-01</leafValues></_>
        <_>
          <internalNodes>
            0 -1 124 -1.9459975883364677e-03</internalNodes>
          <leafValues>
            3.4837830066680908e-01 -3.9791280031204224e-01</leafValues></_>
        <_>
          <internalNodes>
            0 -1 94 -1.6274333465844393e-03</internalNodes>
          <leafValues>
            3.9025187492370605e-01 -3.4195414185523987e-01</leafValues></_>
        <_>
          <internalNodes>
            0 -1 76 2.2320394054986537e-04</internalNodes>
          <leafValues>
            -3.1364402174949646e-01 5.1377362012863159e-01</leafValues></_>
        <_>
          <internalNodes>
            0 -1 30 2.0076581859029830e-04</internalNodes>
          <leafValues>
            3.2399213314056396e-01 -6.0061770677566528e-01</leafValues></_></weakClassifiers></_>
    <!-- stage 14 -->
    <_>
      <maxWeakCount>9</maxWeakCount>
      <stageThreshold>-7.8327846527099609e-01</stageThreshold>
      <weakClassifiers>
        <_>
          <internalNodes>
            0 -1 53 -9.1618348960764706e-05</internalNodes>
          <leafValues>
            -8.2105261087417603e-01 3.9432623982429504e-01</leafValues></_>
        <_>
          <internalNodes>
            0 -1 116 -1.2056897394359112e-03</internalNodes>
          <leafValues>
            3.5569214820861816e-01 -4.1605579853057861e-01</leafValues></_>
        <_>
          <internalNodes>
            0 -1 126 2.7908099582418799e-04</internalNodes>
          <leafValues>
            -2.7678221464157104e-01 5.6719988584518433e-01</leafValues></_>
        <_>
          <internalNodes>
            0 -1 45 -8.0819998402148485e-05</internalNodes>
          <leafValues>
            -9.7211384773254395e-01 1.6499456763267517e-01</leafValues></_>
        <_>
          <internalNodes>
            0 -1 98 2.5335925784020219e-06</internalNodes>
          <leafValues>
            -5.6439894437789917e-01 2.1725355088710785e-01</leafValues></_>
        <_>
          <internalNodes>
            0 -1 7 1.4449513982981443e-03</internalNodes>
          <leafValues>
            -3.8909569382667542e-01 4.4555386900901794e-01</leafValues></_>
        <_>
          <internalNodes>
            0 -1 86 -5.2461989980656654e-05</internalNodes>
          <leafValues>
            3.8546025753021240e-01 -4.1685241460800171e-01</leafValues></_>
        <_>
          <internalNodes>
            0 -1 128 -6.9802725920453668e-04</internalNodes>
          <leafValues>
            7.1088582277297974e-01 -2.3360486328601837e-01</leafValues></_>
        <_>
          <internalNodes>
            0 -1 49 -8.6519736796617508e-03</internalNodes>
          <leafValues>
            -6.9210410118103027e-01 2.5266474485397339e-01</leafValues></_></weakClassifiers></_>
    <!-- stage 15 -->
    <_>
      <maxWeakCount>8</maxWeakCount>
      <stageThreshold>-5.3568094968795776e-01</stageThreshold>
      <weakClassifiers>
        <_>
          <internalNodes>
            0 -1 63 -5.7739093899726868e-03</internalNodes>
          <leafValues>
            5.4447704553604126e-01 -2.7209705114364624e-01</leafValues></_>
        <_>
          <internalNodes>
            0 -1 10 3.6676420131698251e-04</internalNodes>
          <leafValues>
            -2.9285991191864014e-01 4.5445597171783447e-01</leafValues></_>
        <_>
          <internalNodes>
            0 -1 52 -6.1469234060496092e-04</internalNodes>
          <leafValues>
            -9.2463237047195435e-01 1.6768735647201538e-01</leafValues></_>
        <_>
          <internalNodes>
            0 -1 103 -1.7980150005314499e-05</internalNodes>
          <leafValues>
            2.6056590676307678e-01 -4.9857386946678162e-01</leafValues></_>
        <_>
          <internalNodes>
            0 -1 67 4.1629601037129760e-04</internalNodes>
          <leafValues>
            1.1969471722841263e-01 -9.4818323850631714e-01</leafValues></_>
        <_>
          <internalNodes>
            0 -1 118 3.8581859553232789e-04</internalNodes>
          <leafValues>
            -3.1150162220001221e-01 4.8563486337661743e-01</leafValues></_>
        <_>
          <internalNodes>
            0 -1 36 9.1601838357746601e-04</internalNodes>
          <leafValues>
            -4.2810928821563721e-01 4.0538468956947327e-01</leafValues></_>
        <_>
          <internalNodes>
            0 -1 35 6.7806293372996151e-05</internalNodes>
          <leafValues>
            3.1957903504371643e-01 -6.1255502700805664e-01</leafValues></_></weakClassifiers></_>
    <!-- stage 16 -->
    <_>
      <maxWeakCount>10</maxWeakCount>
      <stageThreshold>-5.3696000576019287e-01</stageThreshold>
      <weakClassifiers>
        <_>
          <internalNodes>
            0 -1 75 -9.0094248298555613e-04</internalNodes>
          <leafValues>
            5.0094163417816162e-01 -2.4535316228866577e-01</leafValues></_>
        <_>
          <internalNodes>
            0 -1 109 9.3541305977851152e-04</internalNodes>
          <leafValues>
            -3.5267111659049988e-01 4.0459299087524414e-01</leafValues></_>
        <_>
          <internalNodes>
            0 -1 14 -7.2696246206760406e-04</internalNodes>
          <leafValues>
            3.4865912795066833e-01 -3.7790164351463318e-01</leafValues></_>
        <_>
          <internalNodes>
            0 -1 100 2.6410730242787395e-06</internalNodes>
          <leafValues>
            -5.7880502939224243e-01 2.6004877686500549e-01</leafValues></_>
        <_>
          <internalNodes>
            0 -1 57 1.5329548623412848e-03</internalNodes>
          <leafValues>
            -2.5782611966133118e-01 6.2643557786941528e-01</leafValues></_>
        <_>
          <internalNodes>
            0 -1 46 6.6539520048536360e-05</internalNodes>
          <leafValues>
            1.9690121710300446e-01 -8.2823938131332397e-01</leafValues></_>
        <_>
          <internalNodes>
            0 -1 27 -2.8500081971287727e-03</internalNodes>
          <leafValues>
            4.8492461442947388e-01 -2.6915726065635681e-01</leafValues></_>
        <_>
          <internalNodes>
            0 -1 24 9.0077828645007685e-06</internalNodes>
          <leafValues>
            -3.1314480304718018e-01 4.4209021329879761e-01</leafValues></_>
        <_>
          <internalNodes>
            0 -1 59 -1.3974057219456881e-04</internalNodes>
          <leafValues>
            -8.6158651113510132e-01 1.3359193503856659e-01</leafValues></_>
        <_>
          <internalNodes>
            0 -1 73 -2.6397883630124852e-06</internalNodes>
          <leafValues>
            2.4835132062435150e-01 -5.1324462890625000e-01</leafValues></_></weakClassifiers></_>
    <!-- stage 17 -->
    <_>
      <maxWeakCount>8</maxWeakCount>
      <stageThreshold>-6.0949605703353882e-01</stageThreshold>
      <weakClassifiers>
        <_>
          <internalNodes>
            0 -1 54 -1.0034345905296504e-04</internalNodes>
          <leafValues>
            -7.3658537864685059e-01 3.9498206973075867e-01</leafValues></_>
        <_>
          <internalNodes>
            0 -1 34 -5.1843991968780756e-05</internalNodes>
          <leafValues>
            2.8267142176628113e-01 -5.5051028728485107e-01</leafValues></_>
        <_>
          <internalNodes>
            0 -1 121 -1.1401217430830002e-02</internalNodes>
          <leafValues>
            4.4763451814651489e-01 -2.9510465264320374e-01</leafValues></_>
        <_>
          <internalNodes>
            0 -1 107 2.2051501673558960e-06</internalNodes>
          <leafValues>
            -4.7907155752182007e-01 3.0263277888298035e-01</leafValues></_>
        <_>
          <internalNodes>
            0 -1 84 -1.7306008376181126e-03</internalNodes>
          <leafValues>
            2.9449567198753357e-01 -4.6096062660217285e-01</leafValues></_>
        <_>
          <internalNodes>
            0 -1 115 1.6864924691617489e-04</internalNodes>
          <leafValues>
            -3.9423042535781860e-01 4.0073820948600769e-01</leafValues></_>
        <_>
          <internalNodes>
            0 -1 44 -7.2657094278838485e-05</internalNodes>
          <leafValues>
            -6.9794094562530518e-01 2.3591846227645874e-01</leafValues></_>
        <_>
          <internalNodes>
            0 -1 18 -6.4204510999843478e-04</internalNodes>
          <leafValues>
            5.6712353229522705e-01 -3.1255820393562317e-01</leafValues></_></weakClassifiers></_>
    <!-- stage 18 -->
    <_>
      <maxWeakCount>11</maxWeakCount>
      <stageThreshold>-7.3867809772491455e-01</stageThreshold>
      <weakClassifiers>
        <_>
          <internalNodes>
            0 -1 108 -6.1985309002920985e-05</internalNodes>
          <leafValues>
            -5.6521737575531006e-01 4.0311804413795471e-01</leafValues></_>
        <_>
          <internalNodes>
            0 -1 74 -1.9694947695825249e-05</internalNodes>
          <leafValues>
            2.9525232315063477e-01 -4.4810485839843750e-01</leafValues></_>
        <_>
          <internalNodes>
            0 -1 9 -7.0365564897656441e-03</internalNodes>
          <leafValues>
            5.0512063503265381e-01 -2.8654581308364868e-01</leafValues></_>
        <_>
          <internalNodes>
            0 -1 105 1.4362746151164174e-04</internalNodes>
          <leafValues>
            1.5383708477020264e-01 -8.5356432199478149e-01</leafValues></_>
        <_>
          <internalNodes>
            0 -1 88 -6.9245697886799462e-06</internalNodes>
          <leafValues>
            2.8440800309181213e-01 -4.1545012593269348e-01</leafValues></_>
        <_>
          <internalNodes>
            0 -1 22 1.6832722758408636e-04</internalNodes>
          <leafValues>
            -2.7225044369697571e-01 5.2370166778564453e-01</leafValues></_>
        <_>
          <internalNodes>
            0 -1 68 3.4888007212430239e-04</internalNodes>
          <leafValues>
            -4.7406196594238281e-01 3.1643122434616089e-01</leafValues></_>
        <_>
          <internalNodes>
            0 -1 39 7.7860699093434960e-05</internalNodes>
          <leafValues>
            1.5455639362335205e-01 -7.6325774192810059e-01</leafValues></_>
        <_>
          <internalNodes>
            0 -1 123 7.3898219852708280e-05</internalNodes>
          <leafValues>
            -3.8826620578765869e-01 3.0425378680229187e-01</leafValues></_>
        <_>
          <internalNodes>
            0 -1 60 8.7248312775045633e-04</internalNodes>
          <leafValues>
            -2.7384412288665771e-01 4.4146469235420227e-01</leafValues></_>
        <_>
          <internalNodes>
            0 -1 95 1.0100661311298609e-03</internalNodes>
          <leafValues>
            -2.9949486255645752e-01 6.0804247856140137e-01</leafValues></_></weakClassifiers></_>
    <!-- stage 19 -->
    <_>
      <maxWeakCount>11</maxWeakCount>
      <stageThreshold>-8.5387301445007324e-01</stageThreshold>
      <weakClassifiers>
        <_>
          <internalNodes>
            0 -1 65 -2.4957652203738689e-03</internalNodes>
          <leafValues>
            -7.9347825050354004e-01 3.8559320569038391e-01</leafValues></_>
        <_>
          <internalNodes>
            0 -1 127 8.5793621838092804e-03</internalNodes>
          <leafValues>
            -3.2301118969917297e-01 3.9198979735374451e-01</leafValues></_>
        <_>
          <internalNodes>
            0 -1 12 4.4529195874929428e-03</internalNodes>
          <leafValues>
            2.0262269675731659e-01 -7.4722468852996826e-01</leafValues></_>
        <_>
          <internalNodes>
            0 -1 122 3.4199198125861585e-05</internalNodes>
          <leafValues>
            -3.4033977985382080e-01 4.2246967554092407e-01</leafValues></_>
        <_>
          <internalNodes>
            0 -1 70 1.5602599887643009e-04</internalNodes>
          <leafValues>
            -3.9147609472274780e-01 3.0699840188026428e-01</leafValues></_>
        <_>
          <internalNodes>
            0 -1 129 4.6301670954562724e-04</internalNodes>
          <leafValues>
            -2.6883909106254578e-01 5.5707651376724243e-01</leafValues></_>
        <_>
          <internalNodes>
            0 -1 32 -6.6245484049431980e-05</internalNodes>
          <leafValues>
            -8.1174463033676147e-01 1.9710652530193329e-01</leafValues></_>
        <_>
          <internalNodes>
            0 -1 15 1.2306716234888881e-04</internalNodes>
          <leafValues>
            -2.8827524185180664e-01 4.3561059236526489e-01</leafValues></_>
        <_>
          <internalNodes>
            0 -1 11 -7.7432519756257534e-03</internalNodes>
          <leafValues>
            4.6461373567581177e-01 -2.6111871004104614e-01</leafValues></_>
        <_>
          <internalNodes>
            0 -1 117 3.4245662391185760e-05</internalNodes>
          <leafValues>
            -3.7517997622489929e-01 3.5204336047172546e-01</leafValues></_>
        <_>
          <internalNodes>
            0 -1 78 5.8616096794139594e-05</internalNodes>
          <leafValues>
            1.3120049238204956e-01 -9.7051864862442017e-01</leafValues></_></weakClassifiers></_></stages>
  <features>
    <_>
      <rects>
        <_>
          0 3 48 38 -1.</_>
        <_>
          16 3 16 38 3.</_></rects>
      <tilted>0</tilted></_>
    <_>
      <rects>
        <_>
          0 3 48 39 -1.</_>
        <_>
          16 3 16 39 3.</_></rects>
      <tilted>0</tilted></_>
    <_>
      <rects>
        <_>
          0 5 45 35 -1.</_>
        <_>
          15 5 15 35 3.</_></rects>
      <tilted>0</tilted></_>
    <_>
      <rects>
        <_>
          3 0 22 8 -1.</_>
        <_>
          3 0 11 4 2.</_>
        <_>
          14 4 11 4 2.</_></rects>
      <tilted>0</tilted></_>
    <_>
      <rects>
        <_>
          3 0 24 6 -1.</_>
        <_>
          3 0 12 3 2.</_>
        <_>
          15 3 12 3 2.</_></rects>
      <tilted>0</tilted></_>
    <_>
      <rects>
        <_>
          4 6 16 33 -1.</_>
        <_>
          12 6 8 33 2.</_></rects>
      <tilted>0</tilted></_>
    <_>
      <rects>
        <_>
          5 9 12 16 -1.</_>
        <_>
          9 9 4 16 3.</_></rects>
      <tilted>0</tilted></_>
    <_>
      <rects>
        <_>
          5 17 12 3 -1.</_>
        <_>
          9 17 4 3 3.</_></rects>
      <tilted>0</tilted></_>
    <_>
      <rects>
        <_>
          5 36 18 12 -1.</_>
        <_>
          5 36 9 6 2.</_>
        <_>
          14 42 9 6 2.</_></rects>
      <tilted>0</tilted></_>
    <_>
      <rects>
        <_>
          6 0 14 10 -1.</_>
        <_>
          6 0 7 5 2.</_>
        <_>
          13 5 7 5 2.</_></rects>
      <tilted>0</tilted></_>
    <_>
      <rects>
        <_>
          9 30 6 2 -1.</_>
        <_>
          11 30 2 2 3.</_></rects>
      <tilted>0</tilted></_>
    <_>
      <rects>
        <_>
          10 5 4 43 -1.</_>
        <_>
          12 5 2 43 2.</_></rects>
      <tilted>0</tilted></_>
    <_>
      <rects>
        <_>
          10 23 28 2 -1.</_>
        <_>
          24 23 14 2 2.</_></rects>
      <tilted>0</tilted></_>
    <_>
      <rects>
        <_>
          10 28 6 3 -1.</_>
        <_>
          12 28 2 3 3.</_></rects>
      <tilted>0</tilted></_>
    <_>
      <rects>
        <_>
          11 20 9 4 -1.</_>
        <_>
          14 20 3 4 3.</_></rects>
      <tilted>0</tilted></_>
    <_>
      <rects>
        <_>
          11 27 2 2 -1.</_>
        <_>
          12 27 1 2 2.</_></rects>
      <tilted>0</tilted></_>
    <_>
      <rects>
        <_>
          11 27 2 3 -1.</_>
        <_>
          12 27 1 3 2.</_></rects>
      <tilted>0</tilted></_>
    <_>
      <rects>
        <_>
          11 28 2 1 -1.</_>
        <_>
          12 28 1 1 2.</_></rects>
      <tilted>0</tilted></_>
    <_>
      <rects>
        <_>
          11 29 3 8 -1.</_>
        <_>
          11 33 3 4 2.</_></rects>
      <tilted>0</tilted></_>
    <_>
      <rects>
        <_>
          11 38 18 4 -1.</_>
        <_>
          20 38 9 4 2.</_></rects>
      <tilted>0</tilted></_>
    <_>
      <rects>
        <_>
          12 16 4 6 -1.</_>
        <_>
          12 16 2 3 2.</_>
        <_>
          14 19 2 3 2.</_></rects>
      <tilted>0</tilted></_>
    <_>
      <rects>
        <_>
          12 16 4 8 -1.</_>
        <_>
          12 16 2 4 2.</_>
        <_>
          14 20 2 4 2.</_></rects>
      <tilted>0</tilted></_>
    <_>
      <rects>
        <_>
          12 25 2 7 -1.</_>
        <_>
          13 25 1 7 2.</_></rects>
      <tilted>0</tilted></_>
    <_>
      <rects>
        <_>
          13 12 2 7 -1.</_>
        <_>
          14 12 1 7 2.</_></rects>
      <tilted>0</tilted></_>
    <_>
      <rects>
        <_>
          13 17 2 1 -1.</_>
        <_>
          14 17 1 1 2.</_></rects>
      <tilted>0</tilted></_>
    <_>
      <rects>
        <_>
          13 42 16 6 -1.</_>
        <_>
          13 44 16 2 3.</_></rects>
      <tilted>0</tilted></_>
    <_>
      <rects>
        <_>
          14 0 19 10 -1.</_>
        <_>
          14 5 19 5 2.</_></rects>
      <tilted>0</tilted></_>
    <_>
      <rects>
        <_>
          14 41 25 6 -1.</_>
        <_>
          14 43 25 2 3.</_></rects>
      <tilted>0</tilted></_>
    <_>
      <rects>
        <_>
          15 0 12 8 -1.</_>
        <_>
          15 4 12 4 2.</_></rects>
      <tilted>0</tilted></_>
    <_>
      <rects>
        <_>
          15 13 4 22 -1.</_>
        <_>
          15 13 2 11 2.</_>
        <_>
          17 24 2 11 2.</_></rects>
      <tilted>0</tilted></_>
    <_>
      <rects>
        <_>
          15 18 19 8 -1.</_>
        <_>
          15 22 19 4 2.</_></rects>
      <tilted>0</tilted></_>
    <_>
      <rects>
        <_>
          15 23 9 2 -1.</_>
        <_>
          18 23 3 2 3.</_></rects>
      <tilted>0</tilted></_>
    <_>
      <rects>
        <_>
          15 24 3 2 -1.</_>
        <_>
          16 24 1 2 3.</_></rects>
      <tilted>0</tilted></_>
    <_>
      <rects>
        <_>
          16 20 19 15 -1.</_>
        <_>
          16 25 19 5 3.</_></rects>
      <tilted>0</tilted></_>
    <_>
      <rects>
        <_>
          16 26 8 9 -1.</_>
        <_>
          16 29 8 3 3.</_></rects>
      <tilted>0</tilted></_>
    <_>
      <rects>
        <_>
          17 19 6 4 -1.</_>
        <_>
          20 19 3 4 2.</_></rects>
      <tilted>0</tilted></_>
    <_>
      <rects>
        <_>
          17 20 15 13 -1.</_>
        <_>
          22 20 5 13 3.</_></rects>
      <tilted>0</tilted></_>
    <_>
      <rects>
        <_>
          17 26 3 18 -1.</_>
        <_>
          17 35 3 9 2.</_></rects>
      <tilted>0</tilted></_>
    <_>
      <rects>
        <_>
          17 27 3 9 -1.</_>
        <_>
          17 30 3 3 3.</_></rects>
      <tilted>0</tilted></_>
    <_>
      <rects>
        <_>
          17 30 13 3 -1.</_>
        <_>
          17 31 13 1 3.</_></rects>
      <tilted>0</tilted></_>
    <_>
      <rects>
        <_>
          18 5 10 36 -1.</_>
        <_>
          18 23 10 18 2.</_></rects>
      <tilted>0</tilted></_>
    <_>
      <rects>
        <_>
          18 11 12 30 -1.</_>
        <_>
          18 21 12 10 3.</_></rects>
      <tilted>0</tilted></_>
    <_>
      <rects>
        <_>
          18 14 9 11 -1.</_>
        <_>
          21 14 3 11 3.</_></rects>
      <tilted>0</tilted></_>
    <_>
      <rects>
        <_>
          18 16 6 1 -1.</_>
        <_>
          21 16 3 1 2.</_></rects>
      <tilted>0</tilted></_>
    <_>
      <rects>
        <_>
          18 20 4 3 -1.</_>
        <_>
          20 20 2 3 2.</_></rects>
      <tilted>0</tilted></_>
    <_>
      <rects>
        <_>
          18 23 3 4 -1.</_>
        <_>
          19 23 1 4 3.</_></rects>
      <tilted>0</tilted></_>
    <_>
      <rects>
        <_>
          18 25 5 6 -1.</_>
        <_>
          18 27 5 2 3.</_></rects>
      <tilted>0</tilted></_>
    <_>
      <rects>
        <_>
          18 25 6 6 -1.</_>
        <_>
          18 27 6 2 3.</_></rects>
      <tilted>0</tilted></_>
    <_>
      <rects>
        <_>
          18 38 18 10 -1.</_>
        <_>
          18 43 18 5 2.</_></rects>
      <tilted>0</tilted></_>
    <_>
      <rects>
        <_>
          19 4 8 41 -1.</_>
        <_>
          23 4 4 41 2.</_></rects>
      <tilted>0</tilted></_>
    <_>
      <rects>
        <_>
          19 12 8 18 -1.</_>
        <_>
          19 12 4 9 2.</_>
        <_>
          23 21 4 9 2.</_></rects>
      <tilted>0</tilted></_>
    <_>
      <rects>
        <_>
          19 14 11 3 -1.</_>
        <_>
          19 15 11 1 3.</_></rects>
      <tilted>0</tilted></_>
    <_>
      <rects>
        <_>
          19 17 9 9 -1.</_>
        <_>
          19 20 9 3 3.</_></rects>
      <tilted>0</tilted></_>
    <_>
      <rects>
        <_>
          19 20 6 3 -1.</_>
        <_>
          21 20 2 3 3.</_></rects>
      <tilted>0</tilted></_>
    <_>
      <rects>
        <_>
          19 22 3 10 -1.</_>
        <_>
          20 22 1 10 3.</_></rects>
      <tilted>0</tilted></_>
    <_>
      <rects>
        <_>
          19 26 7 9 -1.</_>
        <_>
          19 29 7 3 3.</_></rects>
      <tilted>0</tilted></_>
    <_>
      <rects>
        <_>
          19 27 17 21 -1.</_>
        <_>
          19 34 17 7 3.</_></rects>
      <tilted>0</tilted></_>
    <_>
      <rects>
        <_>
          19 43 11 3 -1.</_>
        <_>
          19 44 11 1 3.</_></rects>
      <tilted>0</tilted></_>
    <_>
      <rects>
        <_>
          20 12 8 7 -1.</_>
        <_>
          24 12 4 7 2.</_></rects>
      <tilted>0</tilted></_>
    <_>
      <rects>
        <_>
          20 13 4 4 -1.</_>
        <_>
          20 15 4 2 2.</_></rects>
      <tilted>0</tilted></_>
    <_>
      <rects>
        <_>
          20 18 11 21 -1.</_>
        <_>
          20 25 11 7 3.</_></rects>
      <tilted>0</tilted></_>
    <_>
      <rects>
        <_>
          20 25 7 3 -1.</_>
        <_>
          20 26 7 1 3.</_></rects>
      <tilted>0</tilted></_>
    <_>
      <rects>
        <_>
          20 29 12 6 -1.</_>
        <_>
          20 31 12 2 3.</_></rects>
      <tilted>0</tilted></_>
    <_>
      <rects>
        <_>
          21 1 15 21 -1.</_>
        <_>
          21 8 15 7 3.</_></rects>
      <tilted>0</tilted></_>
    <_>
      <rects>
        <_>
          21 11 4 18 -1.</_>
        <_>
          21 11 2 9 2.</_>
        <_>
          23 20 2 9 2.</_></rects>
      <tilted>0</tilted></_>
    <_>
      <rects>
        <_>
          21 16 14 10 -1.</_>
        <_>
          28 16 7 10 2.</_></rects>
      <tilted>0</tilted></_>
    <_>
      <rects>
        <_>
          21 29 11 3 -1.</_>
        <_>
          21 30 11 1 3.</_></rects>
      <tilted>0</tilted></_>
    <_>
      <rects>
        <_>
          21 30 9 6 -1.</_>
        <_>
          21 32 9 2 3.</_></rects>
      <tilted>0</tilted></_>
    <_>
      <rects>
        <_>
          21 38 1 10 -1.</_>
        <_>
          21 43 1 5 2.</_></rects>
      <tilted>0</tilted></_>
    <_>
      <rects>
        <_>
          21 40 22 6 -1.</_>
        <_>
          21 40 11 3 2.</_>
        <_>
          32 43 11 3 2.</_></rects>
      <tilted>0</tilted></_>
    <_>
      <rects>
        <_>
          22 5 4 26 -1.</_>
        <_>
          22 5 2 13 2.</_>
        <_>
          24 18 2 13 2.</_></rects>
      <tilted>0</tilted></_>
    <_>
      <rects>
        <_>
          22 8 3 12 -1.</_>
        <_>
          22 12 3 4 3.</_></rects>
      <tilted>0</tilted></_>
    <_>
      <rects>
        <_>
          22 12 1 10 -1.</_>
        <_>
          22 17 1 5 2.</_></rects>
      <tilted>0</tilted></_>
    <_>
      <rects>
        <_>
          22 12 8 2 -1.</_>
        <_>
          22 13 8 1 2.</_></rects>
      <tilted>0</tilted></_>
    <_>
      <rects>
        <_>
          22 15 10 1 -1.</_>
        <_>
          27 15 5 1 2.</_></rects>
      <tilted>0</tilted></_>
    <_>
      <rects>
        <_>
          22 17 15 4 -1.</_>
        <_>
          27 17 5 4 3.</_></rects>
      <tilted>0</tilted></_>
    <_>
      <rects>
        <_>
          22 18 2 10 -1.</_>
        <_>
          22 23 2 5 2.</_></rects>
      <tilted>0</tilted></_>
    <_>
      <rects>
        <_>
          22 21 6 15 -1.</_>
        <_>
          24 21 2 15 3.</_></rects>
      <tilted>0</tilted></_>
    <_>
      <rects>
        <_>
          22 23 6 1 -1.</_>
        <_>
          24 23 2 1 3.</_></rects>
      <tilted>0</tilted></_>
    <_>
      <rects>
        <_>
          22 23 6 1 -1.</_>
        <_>
          25 23 3 1 2.</_></rects>
      <tilted>0</tilted></_>
    <_>
      <rects>
        <_>
          22 25 8 2 -1.</_>
        <_>
          26 25 4 2 2.</_></rects>
      <tilted>0</tilted></_>
    <_>
      <rects>
        <_>
          22 44 4 3 -1.</_>
        <_>
          22 45 4 1 3.</_></rects>
      <tilted>0</tilted></_>
    <_>
      <rects>
        <_>
          23 0 2 6 -1.</_>
        <_>
          23 3 2 3 2.</_></rects>
      <tilted>0</tilted></_>
    <_>
      <rects>
        <_>
          23 0 20 8 -1.</_>
        <_>
          23 0 10 4 2.</_>
        <_>
          33 4 10 4 2.</_></rects>
      <tilted>0</tilted></_>
    <_>
      <rects>
        <_>
          23 1 3 30 -1.</_>
        <_>
          23 16 3 15 2.</_></rects>
      <tilted>0</tilted></_>
    <_>
      <rects>
        <_>
          23 9 1 9 -1.</_>
        <_>
          23 12 1 3 3.</_></rects>
      <tilted>0</tilted></_>
    <_>
      <rects>
        <_>
          23 10 5 4 -1.</_>
        <_>
          23 12 5 2 2.</_></rects>
      <tilted>0</tilted></_>
    <_>
      <rects>
        <_>
          23 14 8 1 -1.</_>
        <_>
          27 14 4 1 2.</_></rects>
      <tilted>0</tilted></_>
    <_>
      <rects>
        <_>
          23 18 4 16 -1.</_>
        <_>
          23 18 2 8 2.</_>
        <_>
          25 26 2 8 2.</_></rects>
      <tilted>0</tilted></_>
    <_>
      <rects>
        <_>
          23 22 4 7 -1.</_>
        <_>
          25 22 2 7 2.</_></rects>
      <tilted>0</tilted></_>
    <_>
      <rects>
        <_>
          23 24 4 4 -1.</_>
        <_>
          23 26 4 2 2.</_></rects>
      <tilted>0</tilted></_>
    <_>
      <rects>
        <_>
          23 27 3 6 -1.</_>
        <_>
          23 29 3 2 3.</_></rects>
      <tilted>0</tilted></_>
    <_>
      <rects>
        <_>
          23 43 2 4 -1.</_>
        <_>
          23 45 2 2 2.</_></rects>
      <tilted>0</tilted></_>
    <_>
      <rects>
        <_>
          24 0 1 14 -1.</_>
        <_>
          24 7 1 7 2.</_></rects>
      <tilted>0</tilted></_>
    <_>
      <rects>
        <_>
          24 0 3 12 -1.</_>
        <_>
          24 4 3 4 3.</_></rects>
      <tilted>0</tilted></_>
    <_>
      <rects>
        <_>
          24 6 4 21 -1.</_>
        <_>
          24 13 4 7 3.</_></rects>
      <tilted>0</tilted></_>
    <_>
      <rects>
        <_>
          24 16 8 2 -1.</_>
        <_>
          24 16 4 1 2.</_>
        <_>
          28 17 4 1 2.</_></rects>
      <tilted>0</tilted></_>
    <_>
      <rects>
        <_>
          24 17 14 6 -1.</_>
        <_>
          31 17 7 6 2.</_></rects>
      <tilted>0</tilted></_>
    <_>
      <rects>
        <_>
          24 21 1 4 -1.</_>
        <_>
          24 23 1 2 2.</_></rects>
      <tilted>0</tilted></_>
    <_>
      <rects>
        <_>
          24 21 2 4 -1.</_>
        <_>
          24 23 2 2 2.</_></rects>
      <tilted>0</tilted></_>
    <_>
      <rects>
        <_>
          24 21 3 4 -1.</_>
        <_>
          24 23 3 2 2.</_></rects>
      <tilted>0</tilted></_>
    <_>
      <rects>
        <_>
          24 23 6 2 -1.</_>
        <_>
          26 23 2 2 3.</_></rects>
      <tilted>0</tilted></_>
    <_>
      <rects>
        <_>
          24 33 4 15 -1.</_>
        <_>
          24 38 4 5 3.</_></rects>
      <tilted>0</tilted></_>
    <_>
      <rects>
        <_>
          25 11 7 2 -1.</_>
        <_>
          25 12 7 1 2.</_></rects>
      <tilted>0</tilted></_>
    <_>
      <rects>
        <_>
          25 15 2 6 -1.</_>
        <_>
          25 18 2 3 2.</_></rects>
      <tilted>0</tilted></_>
    <_>
      <rects>
        <_>
          25 22 4 3 -1.</_>
        <_>
          27 22 2 3 2.</_></rects>
      <tilted>0</tilted></_>
    <_>
      <rects>
        <_>
          25 22 2 9 -1.</_>
        <_>
          25 25 2 3 3.</_></rects>
      <tilted>0</tilted></_>
    <_>
      <rects>
        <_>
          25 23 1 6 -1.</_>
        <_>
          25 26 1 3 2.</_></rects>
      <tilted>0</tilted></_>
    <_>
      <rects>
        <_>
          25 23 4 4 -1.</_>
        <_>
          27 23 2 4 2.</_></rects>
      <tilted>0</tilted></_>
    <_>
      <rects>
        <_>
          26 11 7 18 -1.</_>
        <_>
          26 17 7 6 3.</_></rects>
      <tilted>0</tilted></_>
    <_>
      <rects>
        <_>
          26 23 3 6 -1.</_>
        <_>
          26 26 3 3 2.</_></rects>
      <tilted>0</tilted></_>
    <_>
      <rects>
        <_>
          27 4 4 6 -1.</_>
        <_>
          27 6 4 2 3.</_></rects>
      <tilted>0</tilted></_>
    <_>
      <rects>
        <_>
          27 10 5 9 -1.</_>
        <_>
          27 13 5 3 3.</_></rects>
      <tilted>0</tilted></_>
    <_>
      <rects>
        <_>
          27 16 10 6 -1.</_>
        <_>
          32 16 5 6 2.</_></rects>
      <tilted>0</tilted></_>
    <_>
      <rects>
        <_>
          27 19 6 21 -1.</_>
        <_>
          27 26 6 7 3.</_></rects>
      <tilted>0</tilted></_>
    <_>
      <rects>
        <_>
          27 21 6 9 -1.</_>
        <_>
          29 21 2 9 3.</_></rects>
      <tilted>0</tilted></_>
    <_>
      <rects>
        <_>
          27 22 12 4 -1.</_>
        <_>
          31 22 4 4 3.</_></rects>
      <tilted>0</tilted></_>
    <_>
      <rects>
        <_>
          27 25 6 2 -1.</_>
        <_>
          29 25 2 2 3.</_></rects>
      <tilted>0</tilted></_>
    <_>
      <rects>
        <_>
          28 19 4 10 -1.</_>
        <_>
          30 19 2 10 2.</_></rects>
      <tilted>0</tilted></_>
    <_>
      <rects>
        <_>
          28 19 9 13 -1.</_>
        <_>
          31 19 3 13 3.</_></rects>
      <tilted>0</tilted></_>
    <_>
      <rects>
        <_>
          28 24 9 8 -1.</_>
        <_>
          31 24 3 8 3.</_></rects>
      <tilted>0</tilted></_>
    <_>
      <rects>
        <_>
          28 36 18 12 -1.</_>
        <_>
          28 36 9 6 2.</_>
        <_>
          37 42 9 6 2.</_></rects>
      <tilted>0</tilted></_>
    <_>
      <rects>
        <_>
          31 25 3 2 -1.</_>
        <_>
          32 25 1 2 3.</_></rects>
      <tilted>0</tilted></_>
    <_>
      <rects>
        <_>
          32 14 4 8 -1.</_>
        <_>
          32 14 2 4 2.</_>
        <_>
          34 18 2 4 2.</_></rects>
      <tilted>0</tilted></_>
    <_>
      <rects>
        <_>
          33 15 4 20 -1.</_>
        <_>
          33 25 4 10 2.</_></rects>
      <tilted>0</tilted></_>
    <_>
      <rects>
        <_>
          34 16 3 3 -1.</_>
        <_>
          35 16 1 3 3.</_></rects>
      <tilted>0</tilted></_>
    <_>
      <rects>
        <_>
          34 25 4 6 -1.</_>
        <_>
          34 25 2 3 2.</_>
        <_>
          36 28 2 3 2.</_></rects>
      <tilted>0</tilted></_>
    <_>
      <rects>
        <_>
          35 5 12 35 -1.</_>
        <_>
          39 5 4 35 3.</_></rects>
      <tilted>0</tilted></_>
    <_>
      <rects>
        <_>
          35 19 2 8 -1.</_>
        <_>
          35 19 1 4 2.</_>
        <_>
          36 23 1 4 2.</_></rects>
      <tilted>0</tilted></_>
    <_>
      <rects>
        <_>
          36 24 1 12 -1.</_>
        <_>
          36 28 1 4 3.</_></rects>
      <tilted>0</tilted></_></features></cascade>
</opencv_storage>
